{
  "b": 22.348535580405404,
  "w": [
    0.9373583891298023,
    -0.34608452397739053,
    -7.362557328269328,
    -0.10390873078698754,
    0.050882747821506515,
    -4.145747860221738,
    3.070864250318967,
    -0.13451371800495798,
    -0.765973135282443,
    -0.4189895311542101,
    -0.15556193833150903,
    -1.8491405360256497,
    0.1208607701570963,
    -0.3577609836369004,
    -2.2862402959841877,
    0.10577682230925944,
    -0.22898455710561014,
    -0.044307964282188306,
    -1.2908540314749124,
    0.3079676272168603,
    1.8367473433202683,
    0.4173182170274878,
    -0.9408117914883809,
    -1.0715903137142349,
    -2.2905933925528963,
    -3.983931190500309,
    -1.083844737962657,
    -8.512711078990874,
    -0.3228738562861132,
    -3.2915091964768806,
    -2.8960016439235403,
    -8.645168703384531,
    -0.07589867226938113,
    -0.294550368773277,
    0.9255475291031194,
    -1.2177330153972528,
    2.0673680604551063,
    0.7971603031058856,
    -2.474466667569839,
    -2.481836764197064,
    0.07693203084724921,
    0.1310343303171789,
    0.1470965152968198,
    -0.5420119164267035,
    2.4675688471340314,
    -5.236484943319558,
    -3.7099752655521963,
    -8.56774277991876
  ]
}